{
  "nAffineTransformatioins": 9,
  "affineProbabilities": [
    0,
    0,
    0,
    0,
    0,
    0,
    0,
    0,
    0,
    0,
    0,
    0,
    0,
    0,
    0,
    0,
    0,
    0,
    0,
    0,
    0,
    0,
    0,
    0,
    0,
    0,
    0,
    0,
    0,
    0,
    0,
    0,
    0,
    0,
    0,
    0,
    0,
    0,
    0,
    0,
    0,
    0,
    0,
    0,
    0,
    0,
    0,
    0,
    0,
    0,
    0,
    0,
    0,
    0,
    0,
    0,
    0,
    0,
    0,
    0,
    0,
    0,
    0,
    0,
    0,
    0,
    0,
    0,
    0,
    0,
    0,
    0,
    0,
    0,
    0,
    0,
    0,
    0,
    0,
    0,
    0,
    0,
    0,
    0,
    0,
    0,
    0,
    0,
    0,
    0,
    0,
    0,
    0,
    0,
    0,
    0,
    0,
    0,
    0,
    0,
    0,
    0,
    0,
    0,
    0,
    0,
    0,
    0,
    0,
    0,
    0,
    0,
    0,
    0,
    0,
    0,
    0,
    1,
    1,
    1,
    1,
    1,
    1,
    1,
    1,
    1,
    1,
    1,
    1,
    1,
    1,
    1,
    1,
    1,
    1,
    1,
    1,
    1,
    1,
    1,
    1,
    1,
    1,
    1,
    1,
    1,
    1,
    1,
    1,
    1,
    1,
    1,
    1,
    1,
    1,
    1,
    1,
    1,
    1,
    1,
    1,
    1,
    1,
    1,
    1,
    1,
    1,
    1,
    1,
    1,
    1,
    1,
    1,
    1,
    1,
    1,
    1,
    1,
    1,
    1,
    1,
    1,
    1,
    1,
    1,
    1,
    1,
    1,
    1,
    1,
    1,
    1,
    1,
    1,
    1,
    1,
    1,
    1,
    1,
    1,
    1,
    1,
    1,
    1,
    1,
    1,
    1,
    1,
    1,
    1,
    1,
    1,
    1,
    1,
    1,
    1,
    1,
    1,
    1,
    1,
    2,
    2,
    2,
    2,
    2,
    2,
    2,
    2,
    2,
    2,
    2,
    2,
    2,
    2,
    2,
    2,
    2,
    2,
    2,
    2,
    2,
    2,
    2,
    2,
    2,
    2,
    2,
    2,
    2,
    2,
    2,
    2,
    2,
    2,
    2,
    2,
    2,
    2,
    2,
    2,
    2,
    2,
    2,
    2,
    2,
    2,
    2,
    2,
    2,
    2,
    2,
    2,
    2,
    2,
    2,
    2,
    2,
    2,
    2,
    2,
    2,
    3,
    3,
    3,
    3,
    3,
    3,
    3,
    3,
    3,
    3,
    3,
    3,
    3,
    3,
    3,
    3,
    3,
    3,
    3,
    3,
    3,
    3,
    3,
    3,
    3,
    3,
    3,
    3,
    3,
    3,
    3,
    3,
    3,
    3,
    3,
    3,
    3,
    3,
    3,
    3,
    3,
    3,
    3,
    3,
    3,
    3,
    3,
    3,
    3,
    3,
    3,
    3,
    3,
    3,
    3,
    3,
    3,
    3,
    3,
    3,
    3,
    3,
    3,
    3,
    3,
    3,
    3,
    3,
    3,
    3,
    3,
    3,
    3,
    3,
    3,
    3,
    3,
    3,
    3,
    3,
    3,
    3,
    3,
    3,
    3,
    3,
    3,
    3,
    3,
    3,
    3,
    3,
    3,
    3,
    3,
    3,
    3,
    3,
    3,
    3,
    3,
    3,
    3,
    3,
    3,
    3,
    3,
    3,
    3,
    3,
    3,
    3,
    3,
    3,
    3,
    3,
    3,
    3,
    3,
    3,
    3,
    3,
    3,
    3,
    3,
    3,
    3,
    3,
    3,
    3,
    3,
    3,
    3,
    3,
    3,
    3,
    3,
    3,
    3,
    3,
    3,
    3,
    3,
    3,
    3,
    3,
    3,
    3,
    3,
    3,
    3,
    3,
    3,
    3,
    3,
    3,
    3,
    3,
    3,
    3,
    3,
    3,
    3,
    3,
    3,
    3,
    3,
    3,
    3,
    3,
    3,
    3,
    3,
    3,
    3,
    3,
    3,
    3,
    3,
    3,
    3,
    3,
    3,
    3,
    3,
    4,
    4,
    4,
    4,
    4,
    4,
    4,
    4,
    4,
    4,
    4,
    4,
    4,
    4,
    5,
    5,
    5,
    5,
    5,
    5,
    5,
    5,
    5,
    5,
    5,
    5,
    5,
    5,
    5,
    5,
    5,
    5,
    5,
    5,
    5,
    5,
    5,
    5,
    5,
    5,
    5,
    5,
    5,
    5,
    5,
    5,
    5,
    5,
    5,
    5,
    5,
    5,
    5,
    5,
    5,
    5,
    5,
    5,
    5,
    5,
    5,
    5,
    5,
    5,
    5,
    5,
    5,
    5,
    5,
    5,
    5,
    5,
    5,
    5,
    5,
    5,
    5,
    5,
    5,
    5,
    5,
    5,
    5,
    5,
    5,
    5,
    5,
    5,
    5,
    5,
    5,
    5,
    5,
    5,
    5,
    5,
    5,
    5,
    5,
    5,
    5,
    5,
    5,
    5,
    5,
    5,
    5,
    5,
    5,
    5,
    5,
    5,
    5,
    5,
    5,
    5,
    5,
    5,
    5,
    5,
    5,
    5,
    6,
    6,
    6,
    6,
    6,
    6,
    6,
    6,
    6,
    6,
    6,
    6,
    6,
    6,
    6,
    6,
    6,
    6,
    6,
    6,
    6,
    6,
    6,
    6,
    6,
    6,
    6,
    6,
    6,
    6,
    6,
    6,
    6,
    6,
    6,
    6,
    6,
    6,
    6,
    6,
    6,
    6,
    6,
    6,
    6,
    6,
    6,
    6,
    6,
    6,
    6,
    6,
    6,
    6,
    6,
    6,
    6,
    6,
    6,
    6,
    6,
    6,
    6,
    6,
    6,
    6,
    6,
    6,
    6,
    6,
    6,
    6,
    6,
    6,
    6,
    6,
    6,
    6,
    6,
    6,
    6,
    6,
    6,
    6,
    6,
    6,
    6,
    6,
    6,
    6,
    6,
    6,
    6,
    6,
    6,
    6,
    6,
    6,
    6,
    6,
    6,
    6,
    6,
    6,
    6,
    6,
    6,
    6,
    6,
    6,
    6,
    6,
    6,
    6,
    6,
    6,
    6,
    6,
    6,
    6,
    6,
    6,
    6,
    6,
    6,
    6,
    6,
    6,
    6,
    6,
    6,
    6,
    6,
    6,
    6,
    6,
    6,
    6,
    6,
    6,
    6,
    6,
    6,
    6,
    6,
    6,
    6,
    6,
    6,
    6,
    6,
    6,
    6,
    6,
    6,
    6,
    6,
    6,
    6,
    6,
    6,
    6,
    7,
    7,
    7,
    7,
    7,
    7,
    7,
    7,
    7,
    7,
    7,
    7,
    7,
    7,
    7,
    7,
    7,
    7,
    7,
    7,
    7,
    7,
    7,
    7,
    7,
    7,
    7,
    7,
    7,
    7,
    7,
    7,
    7,
    7,
    7,
    7,
    7,
    7,
    7,
    7,
    7,
    7,
    7,
    7,
    7,
    7,
    7,
    7,
    7,
    7,
    7,
    7,
    7,
    7,
    7,
    7,
    7,
    7,
    7,
    8,
    8,
    8,
    8,
    8,
    8,
    8,
    8,
    8,
    8,
    8,
    8,
    8,
    8,
    8,
    8,
    8,
    8,
    8,
    8,
    8,
    8,
    8,
    8,
    8,
    8,
    8,
    8,
    8,
    8,
    8,
    8,
    8,
    8,
    8,
    8,
    8,
    8,
    8,
    8,
    8,
    8,
    8,
    8,
    8,
    8,
    8,
    8,
    8,
    8,
    8,
    8,
    8,
    8,
    8,
    8,
    8,
    8,
    8,
    8,
    8,
    8,
    8,
    8,
    8,
    8,
    8,
    8,
    8,
    8,
    8,
    8,
    8,
    8,
    8,
    8,
    8,
    8,
    8,
    8,
    8,
    8,
    8,
    8,
    8,
    8,
    8,
    8,
    8,
    8,
    8,
    8,
    8,
    8,
    8,
    8,
    8,
    8,
    8,
    8,
    8,
    8,
    8,
    8,
    8,
    8,
    8,
    8,
    8,
    8,
    8,
    8,
    8,
    8,
    8,
    8,
    8,
    8,
    8,
    8,
    8,
    8,
    8,
    8,
    8,
    8,
    8,
    8,
    8,
    8,
    8,
    8,
    8,
    8,
    8,
    8,
    8,
    8,
    8,
    8,
    8,
    8,
    8,
    8,
    8,
    8,
    8,
    8,
    8,
    8,
    8,
    8,
    8,
    8,
    8,
    8,
    8,
    8,
    8,
    8,
    8,
    8,
    8,
    8,
    8,
    8,
    8,
    8,
    8,
    8,
    8,
    8,
    8,
    8,
    8,
    8,
    8,
    8,
    8,
    8,
    8,
    8,
    8,
    8,
    8,
    8,
    8,
    8,
    8,
    8,
    8
  ],
  "affineMatrices": [
    [
      [
        -0.5293866302627788,
        -0.06724541371490345,
        0.5323554764446841
      ],
      [
        -0.7326617627515404,
        0.4081225868185723,
        0.30420076702483345
      ]
    ],
    [
      [
        0.31333321701352035,
        0.7401591933033798,
        -0.9478649006496669
      ],
      [
        0.2588734647545041,
        0.17527791664874104,
        0.6948311156588267
      ]
    ],
    [
      [
        0.5266306081685721,
        0.8733418850854022,
        -0.20603809807241058
      ],
      [
        0.749122698488139,
        -0.7601790159069419,
        0.44918392329717527
      ]
    ],
    [
      [
        -0.16644079190115546,
        0.2948221363697161,
        0.13923991545384173
      ],
      [
        0.2017198471765551,
        0.29615357951748367,
        0.8118416338275465
      ]
    ],
    [
      [
        -0.32508901027519554,
        -0.022360103042241564,
        -0.12511217359354965
      ],
      [
        0.8859290360757233,
        -0.12333933608623693,
        -0.8301994178595853
      ]
    ],
    [
      [
        -0.2392336607806349,
        0.2125193364716369,
        0.4926595589278304
      ],
      [
        0.8041038122271231,
        -0.9496112468487661,
        0.082147492186319
      ]
    ],
    [
      [
        0.4897893132352549,
        0.8925138020329559,
        0.4116583738540627
      ],
      [
        -0.6317640652090122,
        -0.6175505629058704,
        0.5779082865222938
      ]
    ],
    [
      [
        -0.013225651013705653,
        0.8759603602437078,
        0.8349327831125635
      ],
      [
        -0.6594000449102444,
        0.6465819372777317,
        -0.9387118224772659
      ]
    ],
    [
      [
        -0.22648408134728615,
        -0.40699510388802773,
        0.6576219582319343
      ],
      [
        0.5921739265797126,
        -0.15207652386006143,
        0.3580763949905035
      ]
    ]
  ],
  "finalTransformMatrices": [
    [
      [
        0.5829845781024512,
        -7.119455889295079E-4,
        0.49784404851264297
      ],
      [
        0.4087621195859359,
        -0.1896604554003669,
        -0.24845570154841923
      ]
    ],
    [
      [
        0.10868889843072971,
        -0.7601167916842084,
        0.48527996613262103
      ],
      [
        -0.5079170829250861,
        -0.21819903698013388,
        -0.44952447490850234
      ]
    ],
    [
      [
        0.8253822446614993,
        0.8832567335216421,
        -0.902162261739291
      ],
      [
        -0.46622724437869456,
        -0.19984903656084096,
        0.5345588924139877
      ]
    ],
    [
      [
        0.9180662477299304,
        -0.7963478256751331,
        0.9842825841194518
      ],
      [
        -0.17468056350353556,
        0.7468250155420695,
        0.23050484323789244
      ]
    ],
    [
      [
        -0.9735524005559302,
        -0.9156087043362049,
        -0.5305773098902844
      ],
      [
        -0.6838680610284325,
        -0.3769432482489037,
        0.5519350569241133
      ]
    ],
    [
      [
        0.38325895218744543,
        -0.9935901026085856,
        -0.8537580090102255
      ],
      [
        -0.17619707356008885,
        0.3559696339180012,
        -0.9778917758756087
      ]
    ],
    [
      [
        -0.8524509944657055,
        -0.9330872280291718,
        0.6729116844320859
      ],
      [
        -0.31761712268527,
        -0.15639676070519748,
        -0.80560522555407
      ]
    ],
    [
      [
        -0.3226780458720484,
        0.802110809274204,
        -0.6127225448064215
      ],
      [
        0.4021820573096737,
        0.6599968099002347,
        0.5633703138468669
      ]
    ],
    [
      [
        0.23765438947372153,
        0.9941093178309148,
        0.6213568740424882
      ],
      [
        -0.7069871903362324,
        0.26434310195531574,
        -0.7395279716797232
      ]
    ]
  ],
  "affineColor": [
    {
      "r": 0.7536380570006334,
      "g": 0.9112065678429659,
      "b": 0.6782371305027428
    },
    {
      "r": 0.6626955672928942,
      "g": 0.15553535234624039,
      "b": 0.08106234605865492
    },
    {
      "r": 0.6269823546012597,
      "g": 0.17060906264222997,
      "b": 0.01877873503191707
    },
    {
      "r": 0.7966537678401826,
      "g": 0.5392031844692641,
      "b": 0.5918027508514144
    },
    {
      "r": 0.9705545718895187,
      "g": 0.979718875233678,
      "b": 0.8066012959051341
    },
    {
      "r": 0.9443795728041883,
      "g": 0.3390737323938129,
      "b": 0.9679732622119606
    },
    {
      "r": 0.883668790152005,
      "g": 0.23738953086888692,
      "b": 0.027766182441819498
    },
    {
      "r": 0.6810396967731354,
      "g": 0.4272164646385761,
      "b": 0.7509431462239119
    },
    {
      "r": 0.954909961928566,
      "g": 0.6692023384293647,
      "b": 0.16425453412612634
    }
  ],
  "finalColor": [
    {
      "r": 0.37586171260690004,
      "g": 0.159189036135701,
      "b": 0.8625214967953655
    },
    {
      "r": 0.22006792717324175,
      "g": 0.3719038225493475,
      "b": 0.4109321160118622
    },
    {
      "r": 0.9599142478171989,
      "g": 0.9557110520378214,
      "b": 0.7288028868028572
    },
    {
      "r": 0.3142925987119237,
      "g": 0.17612718245225722,
      "b": 0.5877796771831808
    },
    {
      "r": 0.29579510613378346,
      "g": 0.43738734850312333,
      "b": 0.499097500617818
    },
    {
      "r": 0.9932003640461954,
      "g": 0.9830139562444564,
      "b": 0.9654199985080744
    },
    {
      "r": 0.701019056183072,
      "g": 0.13791084286968303,
      "b": 0.6320708087893561
    },
    {
      "r": 0.7360721947902155,
      "g": 0.09350050866492543,
      "b": 0.5106872550533442
    },
    {
      "r": 0.6033383311998545,
      "g": 0.28695396441490717,
      "b": 0.4205226543395828
    }
  ],
  "currentMatrix": -1,
  "variationToggle": true,
  "variations": [
    3,
    19,
    28
  ],
  "variationWeights": [
    0.12199282617080653,
    0.35641931016070627,
    0.7955726606060002,
    0.0363544918333466,
    0.04019251217829389,
    0.5613181506793176,
    0.7657392208103538,
    0.9539502854802797,
    0.18996904649782476,
    0.745564045438363,
    0.7159804791372897,
    0.5648605706073752,
    0.7766956781436928,
    0.27221547793657397,
    0.8474655847251374,
    0.11326888133952184,
    0.6206588802980375,
    0.027464701400527924,
    0.3391036362990384,
    0.2682921435914468,
    0.5346599582606398,
    0.16622622500698037,
    0.2782671994892343,
    0.9398154052027744,
    0.46091389334377464,
    0.38521879280843985,
    0.3616317825123916,
    0.4530730328435123,
    0.6674470262041591,
    0.7603143320029603,
    0.3679926906728236,
    0.043066444852728925
  ],
  "nVariations": 3,
  "variationParameters": [
    [
      0.5840148304492907,
      0.4677947556242683,
      0.4433252307479776,
      -0.3150546111818422
    ],
    [
      0.4854432467045513,
      -0.8343919348282913,
      0.5680130206122906,
      0.36070620188759484
    ],
    [
      0.916871322486658,
      0.5985573040010823,
      0.03841771365212865,
      0.9226672119888699
    ],
    [
      0.4057866719904384,
      0.04922786116116096,
      -0.4071721449452983,
      0.670269307746181
    ],
    [
      0.014557256282490716,
      0.9400887888910272,
      0.5371515691945756,
      0.23060200133252629
    ],
    [
      0.20448119293670963,
      0.4010306704224764,
      0.10763619882359876,
      0.08049027554364208
    ],
    [
      0.07115337283840795,
      0.39646764097127574,
      -0.9267789538574049,
      -0.3079814703091921
    ],
    [
      0.04178629381733945,
      0.9601608547874856,
      0.41523132431212706,
      -0.20796747728155318
    ],
    [
      -0.6776123533898712,
      -0.2011891054921544,
      0.7756365766172502,
      0.845298787839051
    ],
    [
      -0.607536499933544,
      0.5508564657295052,
      0.03111167951745375,
      0.8026422669060791
    ],
    [
      0.6671808665010988,
      0.32480880250612376,
      0.8286555589783955,
      0.39952396408747526
    ],
    [
      -0.9183104225423537,
      -0.20815980626105857,
      -0.7904627323657472,
      0.8471604722980015
    ],
    [
      0.7995685297151949,
      0.07023715488213922,
      -0.44814518124113367,
      0.6274280406346491
    ],
    [
      0.5071274678922089,
      -0.08528143982127667,
      -0.021991146292917207,
      -0.7155656461475861
    ],
    [
      -0.17243899623877845,
      0.3115094682201629,
      0.1019069879252712,
      0.5997824586012763
    ],
    [
      -0.7262834070111925,
      -0.5195470455780877,
      -0.46826760864402295,
      -0.6548094162920033
    ],
    [
      -0.14449515677552238,
      -0.5016681808207601,
      0.8976237952514439,
      0.9252737912045299
    ],
    [
      0.9677454456174226,
      0.2829637423386189,
      -0.6603685425296599,
      -0.3450670225488184
    ],
    [
      -0.49349258968679854,
      -0.4844773459729912,
      -0.6301719538540245,
      -0.8400628233535561
    ],
    [
      -0.7032309010521482,
      0.22893142146360068,
      -0.18653028464356614,
      -0.5540727036735382
    ],
    [
      -0.13851244831527176,
      -0.7469398175493602,
      0.13761765724891206,
      -0.4497922070967042
    ],
    [
      -0.6780662664082062,
      -0.5171440255941298,
      0.891646805181161,
      0.37233521288338456
    ],
    [
      -0.2085852065164553,
      -0.9765802075686278,
      -0.7874165503667647,
      -0.7263471273302506
    ],
    [
      -0.9907290832831055,
      0.6664378146863972,
      -0.6107710181571493,
      0.3425600910508997
    ],
    [
      -0.8407005952352724,
      -0.13473595037099617,
      0.3325436039902119,
      -0.15855258018679752
    ],
    [
      0.8265243446593955,
      0.40134253454767954,
      0.46577788421059263,
      -0.7171323138848478
    ],
    [
      0.8684961339616588,
      0.27254761375468095,
      0.026357420407385534,
      0.8266549782026962
    ],
    [
      -0.3879292154640328,
      -0.015588328270464968,
      -0.9374601563524063,
      -0.7536567914026653
    ],
    [
      -0.7661164337598503,
      -0.6119001709065632,
      0.5113804367521084,
      -0.4176230728077839
    ],
    [
      -0.5575010752408345,
      -0.5156173564719606,
      -0.3394425084664692,
      -0.21875191897489343
    ],
    [
      0.652482457740831,
      0.20074733655599108,
      0.02512380158912797,
      -0.8861678238366171
    ],
    [
      0.7254075272303886,
      0.049179692602935976,
      -0.788732510688309,
      -0.027161378644260825
    ],
    [
      -0.9499254971863786,
      0.7850390024852609,
      0.6926801195578975,
      0.7684303896806548
    ]
  ],
  "finalTransformToggle": true
}